,0
2002-09-30,0.05001266765132746
2002-10-31,0.02308342577080149
2002-11-30,0.0007352519489504591
2002-12-31,-0.04268791219479051
2003-01-31,0.09021794958878501
2003-02-28,-0.0019749610424749787
2003-03-31,-0.09860660987693161
2003-04-30,-0.026129797158355266
2003-05-31,-0.0048779687077677445
2003-06-30,0.0030532249905093323
2003-07-31,-0.034277379875264115
2003-08-31,0.07373001441989971
2003-09-30,0.005771539685495775
2003-10-31,0.003088138490713254
2003-11-30,-0.014440442391694272
2003-12-31,0.03176286113357527
2004-01-31,0.027175818688689252
2004-02-29,0.03762525629820206
2004-03-31,0.04270427355523592
2004-04-30,-0.0019924370802658345
2004-05-31,-0.04121793829110262
2004-06-30,-0.03618305001697388
2004-07-31,-0.055888096288069844
2004-08-31,0.028479160402970664
2004-09-30,0.023587919337840796
2004-10-31,-0.014212997641994678
2004-11-30,0.025822342774185717
2004-12-31,-0.037402606703281584
2005-01-31,0.006217511864797242
2005-02-28,0.05604925794856721
2005-03-31,0.027565360996609042
2005-04-30,-0.049904017231607305
2005-05-31,-0.006038685153348417
2005-06-30,0.006589069095387497
2005-07-31,0.04741782066282871
2005-08-31,0.02935681757695625
2005-09-30,0.015083292683604067
2005-10-31,-0.06385993590911389
2005-11-30,-0.0017503914880435398
2005-12-31,0.07399551651356626
2006-01-31,0.01519134595834228
2006-02-28,-0.04596910114747104
2006-03-31,0.04309116533791132
2006-04-30,0.0401964695934681
2006-05-31,0.003001732265646188
2006-06-30,0.0010352263891777486
2006-07-31,-0.004868597239621593
2006-08-31,-0.03965427575150735
2006-09-30,-0.050675453075921556
2006-10-31,0.05877012398964648
2006-11-30,0.05154027433262237
2006-12-31,-0.023473603124963438
2007-01-31,-0.00940352168350407
2007-02-28,0.04379446652815135
2007-03-31,-0.000728351887966295
2007-04-30,0.0005811059255729494
2007-05-31,0.028437260769157424
2007-06-30,-0.027857852436907887
2007-07-31,0.024047563478856466
2007-08-31,-0.044614220601758736
2007-09-30,0.07576108553153917
2007-10-31,-0.013456376967462505
2007-11-30,0.005915995933359761
2007-12-31,0.0293950255087753
2008-01-31,0.04058692085690262
2008-02-29,0.11216857084786319
2008-03-31,-0.08317835109708814
2008-04-30,-0.0006633769632735735
2008-05-31,0.02685744035614003
2008-06-30,0.09018531795130132
2008-07-31,-0.08153825285179457
2008-08-31,-0.05547815879773644
2008-09-30,-0.16423749513414898
2008-10-31,-0.17865285652149185
2008-11-30,-0.05323320165136008
2008-12-31,-0.000816079778526373
2009-01-31,0.004270281587399209
2009-02-28,-0.0337823618578459
2009-03-31,0.07228478483009697
2009-04-30,0.028537575848701768
2009-05-31,0.12477114924875103
2009-06-30,-0.016905395838598566
2009-07-31,0.03699525168195751
2009-08-31,0.0022485343170035354
2009-09-30,0.023837839947111708
2009-10-31,0.05372052059096092
2009-11-30,0.07343200209002045
2009-12-31,0.008888356913597571
2010-01-31,-0.02373081169390985
2010-02-28,-0.0018888840266983078
2010-03-31,-0.05874559547239039
2010-04-30,0.05357461767238129
2010-05-31,-0.04836056775326697
2010-06-30,0.03919206489320584
2010-07-31,0.07902698912681878
2010-08-31,-0.03649014001110895
2010-09-30,0.10991800667275976
2010-10-31,0.06443430570216181
2010-11-30,0.014341944686743149
2010-12-31,0.10013369378118563
2011-01-31,0.02537620908310556
2011-02-28,0.054389116372466954
2011-03-31,-0.0019593870294532067
2011-04-30,0.016495236739132935
2011-05-31,-0.062264043961347625
2011-06-30,-0.0007917112160252672
2011-07-31,-0.011911160289187145
2011-08-31,0.0169766727995744
2011-09-30,-0.18273268186783154
2011-10-31,0.05847942424138323
2011-11-30,-0.058035652115698465
2011-12-31,-0.018134033238049626
2012-01-31,0.033880931149123106
2012-02-29,0.03016799165175951
2012-03-31,-0.05797137463815322
2012-04-30,0.0014600698952283414
2012-05-31,-0.07920789870550218
2012-06-30,0.06857094078926246
2012-07-31,0.06307939620548324
2012-08-31,0.032992923689789434
2012-09-30,-0.01146701386050944
2012-10-31,-0.018363233236964233
2012-11-30,0.0029633717534485056
2012-12-31,-0.03781610154795712
2013-01-31,0.020670803572182258
2013-02-28,-0.012196318235290405
2013-03-31,0.0025181856088141562
2013-04-30,-0.007456116955152896
2013-05-31,-0.03724419222322072
2013-06-30,-0.01670571916509826
2013-07-31,0.0033977363036833724
2013-08-31,0.028015873051689788
2013-09-30,-0.014369923359768548
2013-10-31,-0.003089031103238113
2013-11-30,0.00814219028465465
2013-12-31,-0.013329812642611792
2014-01-31,0.010513467463133136
2014-02-28,0.08752805474812975
2014-03-31,0.0009141705552364714
2014-04-30,0.023952753110712544
2014-05-31,-0.042689495653121266
2014-06-30,-0.007329804466570613
2014-07-31,-0.047581630444474464
2014-08-31,-0.010540362256663967
2014-09-30,-0.0374161233779564
2014-10-31,0.002846217139591765
2014-11-30,0.003337113240417151
2014-12-31,-0.038770180660492946
2015-01-31,-0.06095517995921793
2015-02-28,0.022039397174106592
2015-03-31,-0.028525029150208787
2015-04-30,0.030412123493533907
2015-05-31,-0.0028186420347102504
2015-06-30,0.006454122595273028
2015-07-31,-0.08397864875733942
2015-08-31,-0.014839502817460215
2015-09-30,-0.05598707583675114
2015-10-31,0.03824142660756713
2015-11-30,-0.06559560155436155
2015-12-31,-0.043935694246813074
2016-01-31,-0.07206127425014203
2016-02-29,-0.017381899013223737
2016-03-31,0.09115395141091696
2016-04-30,0.04095836135868875
2016-05-31,0.033879461228852
2016-06-30,0.052840421646888985
2016-07-31,-0.05580420454863901
2016-08-31,0.007791009442085696
2016-09-30,0.04617588693952323
2016-10-31,-0.0010287384956827997
2016-11-30,-0.005979823275565351
2016-12-31,0.025510714930874655
2017-01-31,-0.0009265047187503941
2017-02-28,6.076832555737124e-05
2017-03-31,-0.021565194615390467
2017-04-30,0.005737437314200108
2017-05-31,-0.026008943911701905
2017-06-30,-0.016270731538490315
2017-07-31,0.01720363889989394
2017-08-31,0.002637866490050364
2017-09-30,-0.002166347009667261
2017-10-31,0.055210846858701736
2017-11-30,-0.010145601275676482
2017-12-31,0.017032227960781448
2018-01-31,0.019015366576903905
2018-02-28,0.015381091191752521
2018-03-31,-0.010162628130334748
2018-04-30,0.06572775259626669
2018-05-31,-0.001148791966400187
2018-06-30,-0.008134093948665589
2018-07-31,-0.06968440420912587
2018-08-31,-0.0109530878654158
2018-09-30,0.005493044607017765
2018-10-31,-0.00753998110403864
2018-11-30,-0.07482186620235907
2018-12-31,-0.032409583504119814
2019-01-31,0.044393123534398005
2019-02-28,-0.0017130116171395083
2019-03-31,0.004491185794928799
2019-04-30,-0.015849826827807143
2019-05-31,0.0025232883529427417
2019-06-30,0.014283275206082026
2019-07-31,-0.008111115020807478
2019-08-31,-0.0433159193890125
2019-09-30,0.029205557800765277
2019-10-31,0.028917900615355898
2019-11-30,0.019755527505028205
2019-12-31,0.029578409334599143
2020-01-31,-0.02955261186511403
2020-02-29,-0.012503652492307568
2020-03-31,-0.08777335804296978
2020-04-30,-0.02794146191689008
2020-05-31,0.09211667841533307
2020-06-30,0.06984456028276657
2020-07-31,0.05910458047266939
2020-08-31,0.061905424091310696
2020-09-30,-0.061655108826124565
2020-10-31,-0.04504936998480686
2020-11-30,0.11522168896134855
2020-12-31,0.049636169764885246
2021-01-31,0.01756337817004183
2021-02-28,0.06770664070751317
2021-03-31,0.001044154799737169
2021-04-30,0.10667011422684347
2021-05-31,0.0012585313084851983
2021-06-30,-0.03633731430816219
2021-07-31,-0.024178558329844554
2021-08-31,-0.04817537894994225
2021-09-30,0.03086877242481841
2021-10-31,0.031084552431662863
2021-11-30,-0.027370553941690762
2021-12-31,0.029180810140845517
2022-01-31,0.06688285422079147
2022-02-28,0.03886050199152483
2022-03-31,0.018390161102663533
2022-04-30,0.056279817022130585
2022-05-31,-0.04234533124411737
2022-06-30,-0.08809254544233724
2022-07-31,0.004991074083981568
2022-08-31,-0.04230646986380016
2022-09-30,-0.07345971147840326
2022-10-31,0.04284970827019847
2022-11-30,-0.02577887119734339
2022-12-31,-0.04175470505405846
2023-01-31,-0.02767179497778255
2023-02-28,-0.061080811293262684
2023-03-31,-0.004179697159686639
2023-04-30,0.004199970971551997
2023-05-31,-0.039462245730618954
2023-06-30,0.021521565276562377
2023-07-31,0.05309297171184186
2023-08-31,0.000778405563777989
2023-09-30,0.00663994541872348
2023-10-31,0.014679522585191259
2023-11-30,-0.04380869922729191
2023-12-31,-0.057943936651137506
2024-01-31,0.025872549167791598
2024-02-29,0.015985857541212383
2024-03-31,0.03588252293851981
2024-04-30,-0.0017740971225310269
2024-05-31,0.032180331931808755
2024-06-30,-0.02382784923968927
2024-07-31,-0.03354010304410431
2024-08-31,0.038417599475897825
2024-09-30,0.037980494525788396
2024-10-31,0.020976721227859194
2024-11-30,0.021953666593165805
2024-12-31,0.02854047961727554
2025-01-31,0.031874372985922016
2025-02-28,-0.07715513964443678
2025-03-31,0.008880398773442611
2025-04-30,0.005717063019870729
2025-05-31,0.00417661580578359
2025-06-30,-0.01487187771275223
2025-07-31,-0.0003693091279537406
