,0
2001-09-30,-0.12540278589314355
2001-10-31,-0.002383210709520134
2001-11-30,0.0114282476019521
2001-12-31,0.02247969322236419
2002-01-31,-0.02440329040529536
2002-02-28,0.03381717553548051
2002-03-31,0.08711566561371793
2002-04-30,-0.029727846423165324
2002-05-31,0.015727935905735197
2002-06-30,0.031071040904161257
2002-07-31,-0.0023679424809140083
2002-08-31,0.008961175570363791
2002-09-30,0.021750711058163334
2002-10-31,0.008960076508995857
2002-11-30,0.005869048363612817
2002-12-31,-0.00405954290604684
2003-01-31,0.09996139415928967
2003-02-28,0.017930137254260993
2003-03-31,-0.1196000788303599
2003-04-30,-0.026761594590764742
2003-05-31,0.02923308040751202
2003-06-30,-0.010731667570696159
2003-07-31,-0.007491429259066086
2003-08-31,0.058108338852505596
2003-09-30,-0.015727779339840833
2003-10-31,-0.0027220606532791006
2003-11-30,0.007017292287044531
2003-12-31,0.023962970120193022
2004-01-31,0.04055263481800991
2004-02-29,0.033499777346381154
2004-03-31,0.05199881276452101
2004-04-30,-0.008728933692617137
2004-05-31,-0.005665678575568995
2004-06-30,-0.052737882804277963
2004-07-31,-0.01702099361137997
2004-08-31,0.006977924376712509
2004-09-30,0.01672233334051522
2004-10-31,-0.008552026959113985
2004-11-30,0.011396161925730506
2004-12-31,-0.018186641711637322
2005-01-31,-0.0020537538895579444
2005-02-28,0.056666431958527774
2005-03-31,0.04055340674630444
2005-04-30,-0.025407975987618417
2005-05-31,0.0019428811208738858
2005-06-30,0.0016532700462937122
2005-07-31,0.03143229028793439
2005-08-31,-0.01828299010950444
2005-09-30,0.035895971651832635
2005-10-31,-0.023594259493343137
2005-11-30,0.008004686156561582
2005-12-31,0.07149982449976632
2006-01-31,0.011265798612828185
2006-02-28,-0.030781441832019876
2006-03-31,0.033372460760581965
2006-04-30,0.04367589206053846
2006-05-31,-0.008833472372312702
2006-06-30,0.009507684305691324
2006-07-31,0.0035520573063560156
2006-08-31,-0.053056176690944895
2006-09-30,-0.045627522611894185
2006-10-31,0.05688377417474428
2006-11-30,0.06064236621078931
2006-12-31,-0.037105236879756774
2007-01-31,-0.005676147388404013
2007-02-28,0.05098911599787759
2007-03-31,0.002026654110926943
2007-04-30,-0.00021017002842000374
2007-05-31,0.02411942627513967
2007-06-30,-0.004455993039576761
2007-07-31,0.01735124585762448
2007-08-31,-0.038387508873618546
2007-09-30,0.08304734369941379
2007-10-31,0.020929901782775404
2007-11-30,-0.007110640678390931
2007-12-31,0.05515464839021734
2008-01-31,0.031532761645420695
2008-02-29,0.1096502475908962
2008-03-31,-0.08738338129497741
2008-04-30,0.022964540040876988
2008-05-31,0.03215748349634341
2008-06-30,0.09177977762355384
2008-07-31,-0.1021152142177883
2008-08-31,-0.05797105252292544
2008-09-30,-0.13869995854852488
2008-10-31,-0.21386073887524135
2008-11-30,-0.05442010315392284
2008-12-31,-0.013270808756720097
2009-01-31,-0.02785067984411863
2009-02-28,-0.024130276205783036
2009-03-31,0.0542398388476914
2009-04-30,0.012089072890765294
2009-05-31,0.12896828085177223
2009-06-30,-0.03709020587796146
2009-07-31,0.02597609373881955
2009-08-31,-0.023678016972265573
2009-09-30,0.016451434966865578
2009-10-31,0.05886260534652558
2009-11-30,0.0621724201530219
2009-12-31,0.02421245242564425
2010-01-31,-0.036209393608739815
2010-02-28,0.02155044395289633
2010-03-31,-0.019554335801469046
2010-04-30,0.04384317726257526
2010-05-31,-0.08022873266548632
2010-06-30,0.028314501886225876
2010-07-31,0.07923279431041366
2010-08-31,-0.033101279145896036
2010-09-30,0.0850511255827378
2010-10-31,0.05824590059888682
2010-11-30,0.0007634357941050126
2010-12-31,0.10980508763929638
2011-01-31,0.035705415364955355
2011-02-28,0.022733224926989443
2011-03-31,-0.0006210595754457714
2011-04-30,-0.00149021412045113
2011-05-31,-0.03356363886225461
2011-06-30,-0.023968489777138526
2011-07-31,0.020333283643297992
2011-08-31,0.008803569797993608
2011-09-30,-0.14369175695664302
2011-10-31,0.041934638688677445
2011-11-30,-0.04414048881790139
2011-12-31,-0.010823614572222485
2012-01-31,0.029218424493913233
2012-02-29,0.023480793895767366
2012-03-31,-0.03700022889222901
2012-04-30,-0.01873559070257994
2012-05-31,-0.07741543759608839
2012-06-30,0.055636861812317744
2012-07-31,0.043584100164008634
2012-08-31,0.02165844230375118
2012-09-30,-0.0033082790199919065
2012-10-31,-0.011309659179341068
2012-11-30,0.008999579888446315
2012-12-31,-0.022685831127698262
2013-01-31,0.012570937831171284
2013-02-28,-0.01856573372274854
2013-03-31,0.006464504802264663
2013-04-30,-0.0010782828236446486
2013-05-31,-0.02781151814881575
2013-06-30,-0.03218497650722254
2013-07-31,0.005898429532347101
2013-08-31,0.013063780373791014
2013-09-30,-0.01007290760241809
2013-10-31,-0.012821828705908847
2013-11-30,0.014767996115260647
2013-12-31,-0.005922488255683434
2014-01-31,0.02252715381885587
2014-02-28,0.082801082372363
2014-03-31,0.01857226073126283
2014-04-30,0.025393192700074757
2014-05-31,-0.04867536052835288
2014-06-30,-0.007817956844397827
2014-07-31,-0.04992065819335772
2014-08-31,-0.0038274162915522708
2014-09-30,-0.04615562510562073
2014-10-31,-0.008682979297342344
2014-11-30,-0.015205653793797217
2014-12-31,-0.06008422571753987
2015-01-31,-0.06173180079565844
2015-02-28,0.018203974403983084
2015-03-31,-0.04222786379269745
2015-04-30,0.030076659838838893
2015-05-31,-0.0002739768113734311
2015-06-30,0.02435368955843797
2015-07-31,-0.06957225497141338
2015-08-31,-0.030387619221173348
2015-09-30,-0.03355180537560522
2015-10-31,0.02096930992409694
2015-11-30,-0.0482921498649756
2015-12-31,-0.0160447434233487
2016-01-31,-0.041810740001791635
2016-02-29,-0.013161833915101992
2016-03-31,0.07603892301800784
2016-04-30,0.051442771683994616
2016-05-31,0.013600409111237152
2016-06-30,0.03147126166975156
2016-07-31,-0.04506259619368735
2016-08-31,-0.01166555205284297
2016-09-30,0.017328217575389118
2016-10-31,-0.004223977121353324
2016-11-30,0.010131269222150253
2016-12-31,0.03014200188695502
2017-01-31,-0.0013678464303941804
2017-02-28,-0.0012683673371392896
2017-03-31,-0.016102427299534018
2017-04-30,-0.00864886409199053
2017-05-31,-0.0035745098842867792
2017-06-30,0.0022404014195007483
2017-07-31,0.020087636305995072
2017-08-31,-0.033548246369549194
2017-09-30,0.009934713836849414
2017-10-31,0.04553885463572768
2017-11-30,-0.00497643823207755
2017-12-31,0.011114097325664716
2018-01-31,0.0175702887479386
2018-02-28,-0.004202713124595129
2018-03-31,-0.02908996334071934
2018-04-30,0.04905864453857092
2018-05-31,0.02235352228079636
2018-06-30,-0.02028561651925977
2018-07-31,-0.044989699889939366
2018-08-31,-0.017157904327333242
2018-09-30,0.014407640462111982
2018-10-31,-0.010981020282837942
2018-11-30,-0.02579180913091181
2018-12-31,-0.03558186247730005
2019-01-31,0.042193243309391816
2019-02-28,0.006076719571037365
2019-03-31,0.017534104734750422
2019-04-30,0.00015944006842763826
2019-05-31,-0.02658419111427204
2019-06-30,0.02004549852048678
2019-07-31,-0.0143508237549213
2019-08-31,-0.04796662358594151
2019-09-30,0.02806567840117594
2019-10-31,0.03464785597794129
2019-11-30,0.01196476658479291
2019-12-31,0.037943951610087685
2020-01-31,-0.0501045586723659
2020-02-29,-0.03650073774994026
2020-03-31,-0.22802533026541705
2020-04-30,-0.005226930937382829
2020-05-31,0.11697955392194213
2020-06-30,0.04999933266920142
2020-07-31,0.06020133839098236
2020-08-31,0.056086361005304695
2020-09-30,-0.01754415158511143
2020-10-31,-0.017515975028323135
2020-11-30,0.08570480102377313
2020-12-31,0.04732492869884037
2021-01-31,0.011079530988512368
2021-02-28,0.06680951754320562
2021-03-31,0.004559161945530185
2021-04-30,0.09097831554629478
2021-05-31,0.01307166200005512
2021-06-30,-0.02798416692679224
2021-07-31,0.004983735472583008
2021-08-31,-0.03106261255528807
2021-09-30,0.035175379974030745
2021-10-31,0.019901704340445185
2021-11-30,-0.03892463587029527
2021-12-31,0.06906663933103073
2022-01-31,0.06475358146526851
2022-02-28,0.07099890009880959
2022-03-31,0.026856667974887862
2022-04-30,0.05803722085198168
2022-05-31,-0.04106425325282246
2022-06-30,-0.06134322227111346
2022-07-31,-0.03033601396176953
2022-08-31,-0.030611446043587356
2022-09-30,-0.07270556762101632
2022-10-31,0.020034192452042257
2022-11-30,-0.009179548467582373
2022-12-31,-0.02836419953071932
2023-01-31,0.0034323453331532357
2023-02-28,-0.03315395667710291
2023-03-31,-0.01774802944903414
2023-04-30,-0.0014222401171055223
2023-05-31,-0.032089982254960785
2023-06-30,0.03274172144963639
2023-07-31,0.06045516966645944
2023-08-31,-0.007848928097892702
2023-09-30,-0.011843833016538685
2023-10-31,0.0029509974126881427
2023-11-30,-0.025051332924497637
2023-12-31,-0.04606989422426617
2024-01-31,0.01665955056969529
2024-02-29,0.005601016532416195
2024-03-31,0.03921239099226586
2024-04-30,0.016008906916706207
2024-05-31,0.031754539425598784
2024-06-30,-0.022957800601082514
2024-07-31,-0.031202923506245803
2024-08-31,0.012536285722470515
2024-09-30,0.03404219172516552
2024-10-31,0.003054383197236299
2024-11-30,0.005956957543140718
2024-12-31,0.014134815036310977
2025-01-31,0.032091388924965075
2025-02-28,-0.06210635477988288
2025-03-31,0.004960089284515002
2025-04-30,-0.012478605854708716
2025-05-31,0.01172501524482307
2025-06-30,-0.006939829371872787
2025-07-31,0.01543727223367484
