,0
2002-09-30,0.05001266765132746
2002-10-31,0.02308342577080149
2002-11-30,0.000735251948950458
2002-12-31,-0.04268791219479051
2003-01-31,0.09021794958878501
2003-02-28,-0.001974961042474978
2003-03-31,-0.10145036263202052
2003-04-30,-0.02493761713400821
2003-05-31,-0.003399313817511593
2003-06-30,-0.0016156510008763108
2003-07-31,-0.022795397138840334
2003-08-31,0.05443212715716907
2003-09-30,0.009843199138831379
2003-10-31,0.0035074162140692248
2003-11-30,-0.010277321724142868
2003-12-31,0.032509011558576995
2004-01-31,0.0370526329109691
2004-02-29,0.03776328173641139
2004-03-31,0.042912075905025306
2004-04-30,-0.01540521594751754
2004-05-31,-0.02255605181208013
2004-06-30,-0.049007985000128505
2004-07-31,-0.033939174948727564
2004-08-31,0.03045344203951369
2004-09-30,0.00894462909251349
2004-10-31,-0.0054140395262209364
2004-11-30,0.026600100017542996
2004-12-31,-0.035842117959596784
2005-01-31,0.0008900998062834278
2005-02-28,0.04913403810261729
2005-03-31,0.035795452561890796
2005-04-30,-0.03785386174622068
2005-05-31,-0.013034394223554199
2005-06-30,0.015126501666994576
2005-07-31,0.04365750181119212
2005-08-31,-0.0019037436208744682
2005-09-30,0.05146879549009909
2005-10-31,-0.02236168205516324
2005-11-30,0.019333842820749795
2005-12-31,0.06491113715839779
2006-01-31,0.018147006756056364
2006-02-28,-0.03725640548811332
2006-03-31,0.047245270392935024
2006-04-30,0.05479724349040845
2006-05-31,0.004312216254318011
2006-06-30,0.00024836296556939535
2006-07-31,0.006304384806616026
2006-08-31,-0.04623078967163674
2006-09-30,-0.03507218522048998
2006-10-31,0.04943294464399803
2006-11-30,0.06050379988374421
2006-12-31,-0.019783962456800978
2007-01-31,-0.012993748143308266
2007-02-28,0.0536269780176834
2007-03-31,0.004155805850078724
2007-04-30,-0.009153646113815547
2007-05-31,0.027227525943052545
2007-06-30,-0.0013306351343261378
2007-07-31,0.023727997848147803
2007-08-31,-0.03886019807766368
2007-09-30,0.07349100960433062
2007-10-31,0.0073219648534834396
2007-11-30,-0.0016423600386488806
2007-12-31,0.04695186230641044
2008-01-31,0.03482396953427505
2008-02-29,0.10220543948958405
2008-03-31,-0.08248474442109686
2008-04-30,0.02146552216961349
2008-05-31,0.027589967654567765
2008-06-30,0.07576749061843158
2008-07-31,-0.07388915905830032
2008-08-31,-0.06485731425442331
2008-09-30,-0.1254883062549986
2008-10-31,-0.18395532149533408
2008-11-30,-0.03422602968572556
2008-12-31,-5.134246929769331e-05
2009-01-31,-0.03137957939205456
2009-02-28,-0.02491258767704932
2009-03-31,0.05981310276075639
2009-04-30,0.022084997034795707
2009-05-31,0.1182847798804178
2009-06-30,-0.041495695886045486
2009-07-31,0.025230493829515754
2009-08-31,-0.01367252793264899
2009-09-30,0.002894125759989383
2009-10-31,0.05639625806201961
2009-11-30,0.0782165205672547
2009-12-31,0.01486019689595614
2010-01-31,-0.029320724307302037
2010-02-28,0.010557035867771812
2010-03-31,-0.031023409290603043
2010-04-30,0.04455954205239876
2010-05-31,-0.06019608129489903
2010-06-30,0.025068309199297863
2010-07-31,0.07824612082441908
2010-08-31,-0.033121243301098585
2010-09-30,0.08858132699514089
2010-10-31,0.0645117348803025
2010-11-30,-0.0010614702872368692
2010-12-31,0.10471092144040096
2011-01-31,0.026374830288792454
2011-02-28,0.03053935192769708
2011-03-31,-0.012683585214829067
2011-04-30,0.015406403092367583
2011-05-31,-0.042378504070553075
2011-06-30,-0.012489287039977972
2011-07-31,0.006447160545309811
2011-08-31,0.01140771543336762
2011-09-30,-0.155095124158317
2011-10-31,0.057293865074153905
2011-11-30,-0.053072395208041794
2011-12-31,-0.026415569220883728
2012-01-31,0.034802801443867916
2012-02-29,0.022954552924589217
2012-03-31,-0.05014672869519244
2012-04-30,-0.010260531340782707
2012-05-31,-0.09403698641614196
2012-06-30,0.05520505303799662
2012-07-31,0.0436663899251254
2012-08-31,0.029018182440330467
2012-09-30,0.0008080192412615548
2012-10-31,-0.015389927884648642
2012-11-30,0.009583914683227624
2012-12-31,-0.031968261308117855
2013-01-31,0.01984665550715173
2013-02-28,-0.015964541635049036
2013-03-31,0.004422852607423416
2013-04-30,-0.0065483082246702825
2013-05-31,-0.03143327603399182
2013-06-30,-0.029336246992428677
2013-07-31,-0.010610407475864224
2013-08-31,0.02735324853825492
2013-09-30,-0.02016519952256295
2013-10-31,-0.006378917190839093
2013-11-30,0.01509349747962648
2013-12-31,-0.006596082100344551
2014-01-31,0.023070229353808407
2014-02-28,0.07226123458980534
2014-03-31,0.0022574955673760767
2014-04-30,0.022541526256103877
2014-05-31,-0.034806637681156986
2014-06-30,-0.010648788800364855
2014-07-31,-0.041749603792712704
2014-08-31,0.00495171813941916
2014-09-30,-0.05574814459289498
2014-10-31,0.009390285470427029
2014-11-30,-0.012536608151898746
2014-12-31,-0.04562719234918086
2015-01-31,-0.04595427060010332
2015-02-28,0.004614239738054761
2015-03-31,-0.04046729694018986
2015-04-30,0.0112714774018577
2015-05-31,-0.0020487517951050522
2015-06-30,0.030106395908433864
2015-07-31,-0.0713248058341152
2015-08-31,-0.026370357243017385
2015-09-30,-0.0287907595937409
2015-10-31,0.03807082678668227
2015-11-30,-0.05539234768715005
2015-12-31,-0.0190837976770839
2016-01-31,-0.0473196112968062
2016-02-29,-0.014763202042106188
2016-03-31,0.0731827144205234
2016-04-30,0.03776096579620145
2016-05-31,0.013406231129874864
2016-06-30,0.03478687315882475
2016-07-31,-0.04664594560301973
2016-08-31,0.004617050862761507
2016-09-30,0.024762063557808512
2016-10-31,0.003241042392849234
2016-11-30,0.006274596803768955
2016-12-31,0.020677313339117962
2017-01-31,-0.01250343390142491
2017-02-28,0.000352257646611588
2017-03-31,-0.01319055541540548
2017-04-30,-0.002747962948799024
2017-05-31,-0.019511980520669752
2017-06-30,-0.020100020350346172
2017-07-31,0.02997455557481835
2017-08-31,-0.006410251680771275
2017-09-30,0.009886650626076765
2017-10-31,0.044916321741208305
2017-11-30,0.0006361522911047176
2017-12-31,0.00511391157599849
2018-01-31,0.020481382922270225
2018-02-28,0.0003633856979362554
2018-03-31,-0.009615958102972149
2018-04-30,0.05006394741942206
2018-05-31,0.013899172579366815
2018-06-30,-0.01748128888251527
2018-07-31,-0.045013720429022096
2018-08-31,-0.013598903694656215
2018-09-30,-0.0012902199121047973
2018-10-31,-0.01253407891087978
2018-11-30,-0.04134280805972657
2018-12-31,-0.02440731435604086
2019-01-31,0.04311479140827687
2019-02-28,0.013074266800734044
2019-03-31,0.005045554488055604
2019-04-30,0.0007632049527728531
2019-05-31,-0.033704432987298756
2019-06-30,0.03528005254394382
2019-07-31,-0.017920576803324793
2019-08-31,-0.04488780817693009
2019-09-30,0.03411307938889255
2019-10-31,0.026388667117887493
2019-11-30,0.02299638900724942
2019-12-31,0.03819559742564768
2020-01-31,-0.04554881743678798
2020-02-29,-0.029091917571325093
2020-03-31,-0.20417845752630026
2020-04-30,-0.01908499320334647
2020-05-31,0.10739945423694287
2020-06-30,0.05212370317381426
2020-07-31,0.05884899558314508
2020-08-31,0.05535800054249312
2020-09-30,-0.028817597686451677
2020-10-31,-0.009340834060120129
2020-11-30,0.0852649872605078
2020-12-31,0.040631591637525485
2021-01-31,0.00585842983347263
2021-02-28,0.0698588960203475
2021-03-31,-0.0104478694663757
2021-04-30,0.09375307417751304
2021-05-31,0.010848896098735713
2021-06-30,-0.02453193541902762
2021-07-31,0.006784797868803129
2021-08-31,-0.028631250710101044
2021-09-30,0.031156702342352825
2021-10-31,0.027298345920255596
2021-11-30,-0.049602043751834864
2021-12-31,0.06493166303361768
2022-01-31,0.07116050919954638
2022-02-28,0.06969605411372642
2022-03-31,0.022333544113289736
2022-04-30,0.061494743554240776
2022-05-31,-0.047762931268286464
2022-06-30,-0.07155212844306984
2022-07-31,-0.014900116384341931
2022-08-31,-0.02083364238904452
2022-09-30,-0.06518016853571477
2022-10-31,0.02660320737623124
2022-11-30,-0.011931756865684486
2022-12-31,-0.04480403583543324
2023-01-31,-0.02499629918065224
2023-02-28,-0.04830845144377987
2023-03-31,-0.009774312259811542
2023-04-30,0.0017685737258302744
2023-05-31,-0.049450940645576376
2023-06-30,0.04127184271940515
2023-07-31,0.05551617621276522
2023-08-31,0.011862030666836115
2023-09-30,-0.011373785353040107
2023-10-31,-0.004324123155668992
2023-11-30,-0.030123448968769076
2023-12-31,-0.04435032058852279
2024-01-31,0.013540559083883531
2024-02-29,0.011605188176066554
2024-03-31,0.053246860981997636
2024-04-30,0.0056678820989136715
2024-05-31,0.027219706420424827
2024-06-30,-0.0084617179877751
2024-07-31,-0.03712283873172268
2024-08-31,0.023163330303225385
2024-09-30,0.032555609894360994
2024-10-31,0.01720316030653859
2024-11-30,0.008879143825727314
2024-12-31,0.01729894126634431
2025-01-31,0.026199397552151577
2025-02-28,-0.07256905297006443
2025-03-31,0.0014176588935665606
2025-04-30,-0.0026489463989100223
2025-05-31,0.017529016993357186
2025-06-30,-0.010103790571098547
2025-07-31,0.018996353547713698
