,0
2001-09-30,-0.12540278589314355
2001-10-31,-0.002383210709520134
2001-11-30,0.0114282476019521
2001-12-31,0.02247969322236419
2002-01-31,-0.02440329040529536
2002-02-28,0.03381717553548051
2002-03-31,0.08711566561371793
2002-04-30,-0.029727846423165324
2002-05-31,0.015727935905735197
2002-06-30,0.031071040904161257
2002-07-31,-0.002367942480914008
2002-08-31,0.008961175570363791
2002-09-30,0.021750711058163334
2002-10-31,0.008960076508995857
2002-11-30,0.005869048363612819
2002-12-31,-0.004059542906046842
2003-01-31,0.09996139415928967
2003-02-28,0.017930137254260993
2003-03-31,-0.1196000788303599
2003-04-30,-0.026761594590764735
2003-05-31,0.02923308040751202
2003-06-30,-0.010731667570696159
2003-07-31,-0.007491429259066084
2003-08-31,0.058108338852505596
2003-09-30,-0.013889277037752753
2003-10-31,0.0007934670715368133
2003-11-30,0.004349026188932185
2003-12-31,0.0295349357950866
2004-01-31,0.039353190464383556
2004-02-29,0.035492038077459306
2004-03-31,0.05085328073752036
2004-04-30,-0.011039195684748098
2004-05-31,-0.004199386725526575
2004-06-30,-0.05695450095613467
2004-07-31,-0.006515944221589104
2004-08-31,0.0042590706107128295
2004-09-30,0.020192638956278097
2004-10-31,-0.003251281046828536
2004-11-30,0.015500229762803484
2004-12-31,-0.029163993071705474
2005-01-31,0.008116858554734587
2005-02-28,0.05035047186711122
2005-03-31,0.040236165706183234
2005-04-30,-0.03127671102963894
2005-05-31,-0.004253016295389601
2005-06-30,0.0033696418614031134
2005-07-31,0.03473472207496667
2005-08-31,-0.007195018992122336
2005-09-30,0.045627713701283504
2005-10-31,-0.024073539593738445
2005-11-30,0.014913645900115017
2005-12-31,0.06895465578567249
2006-01-31,0.010019038780947715
2006-02-28,-0.02748769340974207
2006-03-31,0.027949655105796105
2006-04-30,0.040816700107223124
2006-05-31,-0.00599261247733265
2006-06-30,0.012397991719292352
2006-07-31,-0.0008207079070475889
2006-08-31,-0.04607943506486897
2006-09-30,-0.038771680634771634
2006-10-31,0.05492255322217801
2006-11-30,0.05322312386283632
2006-12-31,-0.02605971675345399
2007-01-31,-0.008298565752852653
2007-02-28,0.053478651559751206
2007-03-31,-0.00047145802192255677
2007-04-30,-0.0044204411262379895
2007-05-31,0.026666390481245604
2007-06-30,-0.0004085946625119243
2007-07-31,0.018252772580569253
2007-08-31,-0.03583387232826405
2007-09-30,0.08191607223938038
2007-10-31,0.02358504993855698
2007-11-30,-0.0049153918744890696
2007-12-31,0.057379003017896474
2008-01-31,0.029212602182674907
2008-02-29,0.11183833853033993
2008-03-31,-0.09085974233757978
2008-04-30,0.03529678391822016
2008-05-31,0.03248890057950207
2008-06-30,0.09182236968285436
2008-07-31,-0.0974196239811749
2008-08-31,-0.06333618415955887
2008-09-30,-0.13815056685849375
2008-10-31,-0.20882591776707501
2008-11-30,-0.05399970059519169
2008-12-31,-0.017730549037616932
2009-01-31,-0.016350561765694344
2009-02-28,-0.02299888871626249
2009-03-31,0.05654690301772203
2009-04-30,0.0163550034882672
2009-05-31,0.13604205262952251
2009-06-30,-0.042191285910222164
2009-07-31,0.029185464263222733
2009-08-31,-0.017562612700157857
2009-09-30,0.016216380047409377
2009-10-31,0.061790914045047614
2009-11-30,0.060129628887174574
2009-12-31,0.024558892946098303
2010-01-31,-0.04077562678337423
2010-02-28,0.02343763032456845
2010-03-31,-0.023875683211922273
2010-04-30,0.04454943397269337
2010-05-31,-0.07460493260235351
2010-06-30,0.023231361561485663
2010-07-31,0.08583856022601638
2010-08-31,-0.03387903962864358
2010-09-30,0.08380700719415018
2010-10-31,0.05552848139657219
2010-11-30,-0.0007312859457626631
2010-12-31,0.10870165825944723
2011-01-31,0.03418423981076543
2011-02-28,0.02571083134109817
2011-03-31,0.0012444548751611273
2011-04-30,0.008615582880953663
2011-05-31,-0.04001847194526
2011-06-30,-0.019039381455654213
2011-07-31,0.024905865366518024
2011-08-31,0.008345229763227586
2011-09-30,-0.144349137580504
2011-10-31,0.044852883160833995
2011-11-30,-0.04059259036521991
2011-12-31,-0.012260530019257206
2012-01-31,0.029211140986703236
2012-02-29,0.02846850262528562
2012-03-31,-0.03314086680020248
2012-04-30,-0.015619816441048654
2012-05-31,-0.0769322136675066
2012-06-30,0.05806629954073154
2012-07-31,0.04771836362476129
2012-08-31,0.01516017725672747
2012-09-30,-0.002066142876363238
2012-10-31,-0.009979528979231465
2012-11-30,0.010023175826335393
2012-12-31,-0.021973728127119535
2013-01-31,0.012879962840691508
2013-02-28,-0.01836973113468425
2013-03-31,0.00824784626573081
2013-04-30,-0.0005170018653873729
2013-05-31,-0.03012657321491046
2013-06-30,-0.030774326765905906
2013-07-31,0.00423018975700977
2013-08-31,0.01411526158479864
2013-09-30,-0.011856563167993163
2013-10-31,-0.010106094059846776
2013-11-30,0.010418561914602602
2013-12-31,-0.005763989046891532
2014-01-31,0.020771014008737824
2014-02-28,0.07749947720284608
2014-03-31,0.015725463252333868
2014-04-30,0.02198710803361257
2014-05-31,-0.042400738636095475
2014-06-30,-0.004810660518888292
2014-07-31,-0.04888268709081742
2014-08-31,0.00027503742386590543
2014-09-30,-0.04747769133469001
2014-10-31,-0.008312351741613294
2014-11-30,-0.016337620963232255
2014-12-31,-0.06910774852653906
2015-01-31,-0.0630306171199629
2015-02-28,0.015681651295080253
2015-03-31,-0.04314437604326507
2015-04-30,0.023751709882308052
2015-05-31,-0.003039351109218529
2015-06-30,0.03419387840233063
2015-07-31,-0.07241961275790727
2015-08-31,-0.031283021669698534
2015-09-30,-0.027545639341043836
2015-10-31,0.020776068375797697
2015-11-30,-0.04925184640400146
2015-12-31,-0.01212584884135865
2016-01-31,-0.03635054806501712
2016-02-29,-0.015984438602953073
2016-03-31,0.07271493963133041
2016-04-30,0.0475452404619461
2016-05-31,0.01129185328043162
2016-06-30,0.03725056967126217
2016-07-31,-0.04116010416613716
2016-08-31,-0.017152024572574677
2016-09-30,0.012489501352231218
2016-10-31,0.0008075524032485587
2016-11-30,0.013370760610291098
2016-12-31,0.02699768636075909
2017-01-31,0.0015055254628998256
2017-02-28,0.0009930174002898825
2017-03-31,-0.012606100031012205
2017-04-30,-0.004300874794663157
2017-05-31,-0.002734378339574857
2017-06-30,0.0010384738651801801
2017-07-31,0.0197276896797286
2017-08-31,-0.02856027477129796
2017-09-30,0.00731377972484861
2017-10-31,0.04529995285514283
2017-11-30,-0.003738142523911983
2017-12-31,0.011635024500433067
2018-01-31,0.01718052462762639
2018-02-28,-0.0030668368691708103
2018-03-31,-0.020378310498147877
2018-04-30,0.0462286364281523
2018-05-31,0.022969141776048693
2018-06-30,-0.018433198231145656
2018-07-31,-0.04861336624208124
2018-08-31,-0.017207984784800855
2018-09-30,0.012614749860533209
2018-10-31,-0.013001759473718627
2018-11-30,-0.02822773452841311
2018-12-31,-0.03529644560552317
2019-01-31,0.038006225134451885
2019-02-28,0.0049235301968189645
2019-03-31,0.01633462275524185
2019-04-30,-0.0021289983580866
2019-05-31,-0.020486921356585436
2019-06-30,0.016616607060470034
2019-07-31,-0.014356073580316178
2019-08-31,-0.048348306173370575
2019-09-30,0.031100589795355047
2019-10-31,0.033451949286092464
2019-11-30,0.013019683220450367
2019-12-31,0.03666982107950419
2020-01-31,-0.049827081968714555
2020-02-29,-0.034256344174906354
2020-03-31,-0.21807789543553202
2020-04-30,-0.008173792702361331
2020-05-31,0.11646215016194517
2020-06-30,0.052421569476447924
2020-07-31,0.06317555227393933
2020-08-31,0.06011349205840978
2020-09-30,-0.019964347434683297
2020-10-31,-0.019162639987400313
2020-11-30,0.0921761385573509
2020-12-31,0.05215080135773714
2021-01-31,0.013596821656924179
2021-02-28,0.07100467127867362
2021-03-31,0.0007011076066347738
2021-04-30,0.09085733376360977
2021-05-31,0.008208378537616738
2021-06-30,-0.023478076891210096
2021-07-31,0.00777141504584751
2021-08-31,-0.02897411650048157
2021-09-30,0.03419206815477169
2021-10-31,0.019892218741861603
2021-11-30,-0.0430860722508119
2021-12-31,0.06741569552688197
2022-01-31,0.06689149568524604
2022-02-28,0.06830687688687234
2022-03-31,0.031064646930233766
2022-04-30,0.055919138729828295
2022-05-31,-0.029477569486389466
2022-06-30,-0.06960573402886347
2022-07-31,-0.027624312853983965
2022-08-31,-0.03751280673318805
2022-09-30,-0.06256927938705577
2022-10-31,0.019352316644645803
2022-11-30,-0.019271752107836524
2022-12-31,-0.02606831362248892
2023-01-31,-0.0010450015541513002
2023-02-28,-0.03456742194229979
2023-03-31,-0.013942307386551092
2023-04-30,-0.005248829104689896
2023-05-31,-0.03402843059157779
2023-06-30,0.0330927912344801
2023-07-31,0.05760352209571987
2023-08-31,-0.0050520656830242055
2023-09-30,-0.01603610544037263
2023-10-31,0.004183737284926609
2023-11-30,-0.024428795231311598
2023-12-31,-0.04673364445947809
2024-01-31,0.012850847471870803
2024-02-29,0.004431265099677301
2024-03-31,0.03700245202338335
2024-04-30,0.015575414626024667
2024-05-31,0.03235355234810624
2024-06-30,-0.024440909631730616
2024-07-31,-0.03374927363327954
2024-08-31,0.004608011224224822
2024-09-30,0.04121528270519386
2024-10-31,0.0010951816244349226
2024-11-30,0.003347838846158843
2024-12-31,0.010696387846683747
2025-01-31,0.0324421243067827
2025-02-28,-0.05539862320198359
2025-03-31,0.011578601219299045
2025-04-30,-0.021828486124214935
2025-05-31,0.013881242450564399
2025-06-30,0.0011060837571293322
2025-07-31,0.022590477037188663
