,0
2001-09-30,-0.12540278589314355
2001-10-31,-0.002383210709520134
2001-11-30,0.0114282476019521
2001-12-31,0.02247969322236419
2002-01-31,-0.02440329040529536
2002-02-28,0.03381717553548051
2002-03-31,0.08711566561371793
2002-04-30,-0.029727846423165324
2002-05-31,0.015727935905735197
2002-06-30,0.031071040904161257
2002-07-31,-0.002367942480914008
2002-08-31,0.008961175570363791
2002-09-30,0.02101126167335343
2002-10-31,0.008080849480282929
2002-11-30,0.013446878032209869
2002-12-31,-0.006737644560236401
2003-01-31,0.11029131302387744
2003-02-28,0.01019554318517306
2003-03-31,-0.11230590012853166
2003-04-30,-0.02146185793707804
2003-05-31,0.031648273639909665
2003-06-30,-0.0195302513221999
2003-07-31,-0.010504200622679144
2003-08-31,0.055105815663660664
2003-09-30,-0.010084865345007582
2003-10-31,0.0015439651637716148
2003-11-30,0.0006974606182231082
2003-12-31,0.01718372084572276
2004-01-31,0.038506938596762484
2004-02-29,0.02474548340456229
2004-03-31,0.051493056212900755
2004-04-30,-0.012380058989037837
2004-05-31,-0.01759270399224554
2004-06-30,-0.037066677089813864
2004-07-31,-0.022990757905418085
2004-08-31,0.021238733954779394
2004-09-30,-0.006722644734706385
2004-10-31,-0.016381111924309927
2004-11-30,0.008879717409715755
2004-12-31,-0.005749620163815614
2005-01-31,-0.008300160690572654
2005-02-28,0.07041221714181735
2005-03-31,0.04712913039965425
2005-04-30,-0.026004451001756912
2005-05-31,0.007797413047094402
2005-06-30,0.007192379479372867
2005-07-31,0.03566786856128776
2005-08-31,-0.008344110671041743
2005-09-30,0.025010595856344048
2005-10-31,-0.033018463098368846
2005-11-30,0.006679566170367946
2005-12-31,0.0711025978740668
2006-01-31,0.004635227431922208
2006-02-28,-0.0464422186001843
2006-03-31,0.04144244263702936
2006-04-30,0.04712418873709329
2006-05-31,-0.017855431978161158
2006-06-30,0.00527351837892531
2006-07-31,0.010090319594109422
2006-08-31,-0.06567341854576056
2006-09-30,-0.05090821058125608
2006-10-31,0.06004328488499624
2006-11-30,0.06007225010203957
2006-12-31,-0.04877485624690286
2007-01-31,-0.01184274751700399
2007-02-28,0.05290967005263183
2007-03-31,0.0051174474388046304
2007-04-30,0.005312088974006104
2007-05-31,0.025149090389125935
2007-06-30,0.0010483080308557418
2007-07-31,0.017202281211781478
2007-08-31,-0.03129345871005219
2007-09-30,0.09044832367500825
2007-10-31,0.014989511249696913
2007-11-30,0.0012189490586541046
2007-12-31,0.05997173466089047
2008-01-31,0.02890296732996193
2008-02-29,0.10785908954816632
2008-03-31,-0.09978338242507367
2008-04-30,0.03146734900629877
2008-05-31,0.037128520080602204
2008-06-30,0.08503755457367167
2008-07-31,-0.10979257042857855
2008-08-31,-0.06246973562318778
2008-09-30,-0.1427547027861638
2008-10-31,-0.20633655068000759
2008-11-30,-0.04765698235863831
2008-12-31,-0.016045424056268114
2009-01-31,-0.03042578243713377
2009-02-28,-0.015007823788331258
2009-03-31,0.05166079983774776
2009-04-30,0.005755890880461949
2009-05-31,0.13946690131832654
2009-06-30,-0.01592792172943758
2009-07-31,0.03623159992581493
2009-08-31,-0.0029045301946852256
2009-09-30,0.022074813194876614
2009-10-31,0.048132179729554435
2009-11-30,0.04922843057264998
2009-12-31,0.029231555205413488
2010-01-31,-0.047114517441930605
2010-02-28,0.01766233526826781
2010-03-31,-0.042203104486450725
2010-04-30,0.03821436512890539
2010-05-31,-0.07472793259427865
2010-06-30,0.03147914915286893
2010-07-31,0.09440738034046102
2010-08-31,-0.034747015468425915
2010-09-30,0.08791226355933489
2010-10-31,0.06630588010928791
2010-11-30,-0.00959264550705468
2010-12-31,0.11824840405339289
2011-01-31,0.04068940879360475
2011-02-28,0.02430489371387376
2011-03-31,-0.012199598225837533
2011-04-30,0.006330453487236087
2011-05-31,-0.04287525652685007
2011-06-30,-0.02060564313436062
2011-07-31,0.01208101289691211
2011-08-31,0.017267019448083485
2011-09-30,-0.14526214887514932
2011-10-31,0.04201672889522304
2011-11-30,-0.039650104197591705
2011-12-31,-0.017081238722209846
2012-01-31,0.0381791455499613
2012-02-29,0.020752344888079807
2012-03-31,-0.031268019556800926
2012-04-30,-0.016912075798178154
2012-05-31,-0.07688829425346948
2012-06-30,0.049516250341566086
2012-07-31,0.035883334385171155
2012-08-31,0.028792856001544437
2012-09-30,-0.006271291073578443
2012-10-31,-0.011441458295804723
2012-11-30,0.004328091682835234
2012-12-31,-0.024783660195288645
2013-01-31,0.01462670628926263
2013-02-28,-0.014558601627219359
2013-03-31,0.006634703594399543
2013-04-30,0.006675849004306023
2013-05-31,-0.024174454371622967
2013-06-30,-0.03358897598296504
2013-07-31,-0.008919715679159619
2013-08-31,0.009015331696528043
2013-09-30,-0.013502920781718527
2013-10-31,-0.013717822848698762
2013-11-30,0.008210107568650347
2013-12-31,-0.009153215516766709
2014-01-31,0.021765105097982105
2014-02-28,0.08181459075147669
2014-03-31,0.011211425738652166
2014-04-30,0.020126951624448438
2014-05-31,-0.0446811051057047
2014-06-30,0.009684200601393363
2014-07-31,-0.032578281561068394
2014-08-31,-0.011219035016028117
2014-09-30,-0.02513124725986444
2014-10-31,-0.010438854104595602
2014-11-30,-0.01945315936399958
2014-12-31,-0.06318827860679796
2015-01-31,-0.06581404803974138
2015-02-28,0.02324275161343826
2015-03-31,-0.044109569895458035
2015-04-30,0.03918336752370331
2015-05-31,-0.0051392534944385395
2015-06-30,0.024146048563451195
2015-07-31,-0.07457482271202322
2015-08-31,-0.027759770897231296
2015-09-30,-0.040704979240122494
2015-10-31,0.029363185985256803
2015-11-30,-0.049576185622821296
2015-12-31,-0.026862424426200317
2016-01-31,-0.04894062748442211
2016-02-29,-0.008487870568064366
2016-03-31,0.08207132330997792
2016-04-30,0.05923589893917871
2016-05-31,0.021171062227608173
2016-06-30,0.031390077675913265
2016-07-31,-0.05842082408144735
2016-08-31,-0.007317683902612814
2016-09-30,0.0210814357379146
2016-10-31,-0.0014968538761815512
2016-11-30,0.005105451388037744
2016-12-31,0.02946575848786623
2017-01-31,-0.0022790023305892036
2017-02-28,0.0034026612187722533
2017-03-31,-0.017032137853485587
2017-04-30,0.0007613416615924454
2017-05-31,-0.0027889370768162587
2017-06-30,0.008399191862544649
2017-07-31,0.01352044095627427
2017-08-31,-0.03849492501213553
2017-09-30,0.014040539505034545
2017-10-31,0.04647322934292831
2017-11-30,-0.00589300511526055
2017-12-31,0.013442779192769093
2018-01-31,0.017093059920186005
2018-02-28,-0.006003672469311372
2018-03-31,-0.03384802799196011
2018-04-30,0.04806518565510657
2018-05-31,0.03168886507673383
2018-06-30,-0.018528656576611142
2018-07-31,-0.049461554845581936
2018-08-31,-0.013399522150967888
2018-09-30,0.0071445540904355774
2018-10-31,-0.0205746184065687
2018-11-30,-0.04118338681917612
2018-12-31,-0.035428589523771474
2019-01-31,0.047325258193811864
2019-02-28,0.013726141052064107
2019-03-31,0.018209911343797087
2019-04-30,0.002550139915961345
2019-05-31,-0.0319730065608224
2019-06-30,0.01894574698485633
2019-07-31,-0.010934929994198853
2019-08-31,-0.05177669756951315
2019-09-30,0.02876111934774715
2019-10-31,0.036578902757345266
2019-11-30,0.008214481277921236
2019-12-31,0.04148370831284868
2020-01-31,-0.05178396819462391
2020-02-29,-0.026473027916901985
2020-03-31,-0.19798585869259597
2020-04-30,-0.00917031394199574
2020-05-31,0.111385728223052
2020-06-30,0.06063271726738483
2020-07-31,0.06786677752325805
2020-08-31,0.05365334329875534
2020-09-30,-0.03219824785876659
2020-10-31,-0.021380440323020833
2020-11-30,0.0949506315701164
2020-12-31,0.0511156826908182
2021-01-31,0.01337116213675689
2021-02-28,0.0637951801921837
2021-03-31,0.002806231597446899
2021-04-30,0.09166870848382229
2021-05-31,0.0193018569513231
2021-06-30,-0.04736798913395918
2021-07-31,-0.002386395759163129
2021-08-31,-0.0361343336529951
2021-09-30,0.04387302210920869
2021-10-31,0.009843834283015421
2021-11-30,-0.021368352767674816
2021-12-31,0.0735194018949404
2022-01-31,0.061230676972183436
2022-02-28,0.06977527597243958
2022-03-31,0.018354817662881762
2022-04-30,0.058624585187635976
2022-05-31,-0.048245761697682084
2022-06-30,-0.06475861881587414
2022-07-31,-0.03127021129484134
2022-08-31,-0.028348199378883634
2022-09-30,-0.07655139067740983
2022-10-31,0.002297909930446688
2022-11-30,0.0005018891101076136
2022-12-31,-0.02963749267355034
2023-01-31,0.008724399662520718
2023-02-28,-0.03198699704511608
2023-03-31,-0.011895989518711405
2023-04-30,0.0023403760939241596
2023-05-31,-0.02943509782233124
2023-06-30,0.026574486505936787
2023-07-31,0.062062167490414065
2023-08-31,-0.0005544310908792378
2023-09-30,-0.008489976210015788
2023-10-31,0.015311606168555467
2023-11-30,-0.02401380383859288
2023-12-31,-0.049761636809964205
2024-01-31,0.015884520735996516
2024-02-29,0.008742143615636461
2024-03-31,0.05193555466838104
2024-04-30,0.013804004912323628
2024-05-31,0.03382478525960129
2024-06-30,-0.03220591416666153
2024-07-31,-0.023971280564818967
2024-08-31,0.009835663980235916
2024-09-30,0.0312263301865231
2024-10-31,-0.005042940923345758
2024-11-30,0.01430035644130413
2024-12-31,0.009894725813516475
2025-01-31,0.035522228297056736
2025-02-28,-0.04994003801078408
2025-03-31,0.011009903803508045
2025-04-30,-0.016077049925286944
2025-05-31,0.006477032348536835
2025-06-30,-0.01701114058520402
2025-07-31,0.014600578103049544
