,0
2002-09-30,0.05001266765132746
2002-10-31,0.02308342577080149
2002-11-30,0.000735251948950458
2002-12-31,-0.04135835681942269
2003-01-31,0.0853186638991255
2003-02-28,0.008829688695246305
2003-03-31,-0.09440015134394415
2003-04-30,-0.007687376238501748
2003-05-31,-0.008793522394690409
2003-06-30,0.0047317962792959
2003-07-31,-0.04040966001252654
2003-08-31,0.08179405643739979
2003-09-30,0.006678739037488143
2003-10-31,0.0011539083482004404
2003-11-30,-0.02526616923570028
2003-12-31,0.03759608706205741
2004-01-31,0.034636514946351844
2004-02-29,0.04220406776379173
2004-03-31,0.04064507291676716
2004-04-30,-0.00849228371862172
2004-05-31,-0.0539016476037202
2004-06-30,-0.03690585428185202
2004-07-31,-0.047955013040492885
2004-08-31,0.016698132663522804
2004-09-30,0.030186206377816677
2004-10-31,-0.00962453787467264
2004-11-30,0.014958920118210007
2004-12-31,-0.04590452509014777
2005-01-31,0.0016419598139028047
2005-02-28,0.059874832165779664
2005-03-31,0.01719711611388393
2005-04-30,-0.05307629804421171
2005-05-31,0.0024518213599059187
2005-06-30,0.02525134825832619
2005-07-31,0.0507671232845044
2005-08-31,0.04740084487526095
2005-09-30,0.028715365967041953
2005-10-31,-0.07491369658851872
2005-11-30,-0.0050451641340514795
2005-12-31,0.07400620754999937
2006-01-31,0.024977525086324615
2006-02-28,-0.02855250105815223
2006-03-31,0.03878820798514157
2006-04-30,0.04645812270188221
2006-05-31,-0.0021031035144233865
2006-06-30,-0.005604729767481396
2006-07-31,-0.011728908964668064
2006-08-31,-0.040997086121220765
2006-09-30,-0.05544600543830288
2006-10-31,0.04771475462985081
2006-11-30,0.0467742139032002
2006-12-31,-0.023387233827450112
2007-01-31,-0.009536199414751069
2007-02-28,0.043492745626787364
2007-03-31,-0.00253296803450624
2007-04-30,0.000790004012762037
2007-05-31,0.03709970133593826
2007-06-30,-0.009934657391220741
2007-07-31,0.02471760782052236
2007-08-31,-0.0316111344819665
2007-09-30,0.08778674876880056
2007-10-31,-0.008217074822429905
2007-11-30,0.007827783297551233
2007-12-31,0.03342663595352421
2008-01-31,0.0424998554058428
2008-02-29,0.11466305005251572
2008-03-31,-0.09888543802541877
2008-04-30,0.00016931135395267227
2008-05-31,0.012902930031882877
2008-06-30,0.10083777465932942
2008-07-31,-0.08696962106125221
2008-08-31,-0.06251107986277143
2008-09-30,-0.17044131443685076
2008-10-31,-0.18471044059535546
2008-11-30,-0.04716264319958428
2008-12-31,-0.009521283848393835
2009-01-31,0.01613985285583411
2009-02-28,-0.02753347535571533
2009-03-31,0.05719664091530622
2009-04-30,0.024559099579120558
2009-05-31,0.12319356296958435
2009-06-30,-0.018278510407263786
2009-07-31,0.042493245481098486
2009-08-31,0.003304240316292718
2009-09-30,0.03307268541682791
2009-10-31,0.052208624731025666
2009-11-30,0.08489936700235023
2009-12-31,0.0038024661450678696
2010-01-31,-0.03663453197425617
2010-02-28,0.008950341023892265
2010-03-31,-0.06465570911627926
2010-04-30,0.048954484572508374
2010-05-31,-0.04802329105592277
2010-06-30,0.05128158725288832
2010-07-31,0.054732415780308775
2010-08-31,-0.0323772143654041
2010-09-30,0.11002984088877817
2010-10-31,0.0691101806808848
2010-11-30,0.026678024321153543
2010-12-31,0.08957663181400617
2011-01-31,0.026768073552926583
2011-02-28,0.05052678732239561
2011-03-31,-0.008547404247249297
2011-04-30,0.03062496554696209
2011-05-31,-0.06679463457725586
2011-06-30,-0.024564074741208086
2011-07-31,-0.013116151836425574
2011-08-31,0.024480373015817698
2011-09-30,-0.20006577896330624
2011-10-31,0.06083953961404032
2011-11-30,-0.056909778891124675
2011-12-31,-0.022955529047232776
2012-01-31,0.033166365525847986
2012-02-29,0.03442046966583994
2012-03-31,-0.055381250290940244
2012-04-30,2.389566802887706e-05
2012-05-31,-0.08720427114775385
2012-06-30,0.08432148708101728
2012-07-31,0.07037146436299395
2012-08-31,0.04681521995332735
2012-09-30,-0.018703343338165184
2012-10-31,-0.028130876515310974
2012-11-30,0.0040583516294772646
2012-12-31,-0.02789572077488731
2013-01-31,0.007918542709725264
2013-02-28,-0.008770775510745411
2013-03-31,0.0008358354202340993
2013-04-30,-0.009020836846260838
2013-05-31,-0.04470945866923149
2013-06-30,-0.008030219768450775
2013-07-31,-0.010354606436580002
2013-08-31,0.026168090222940504
2013-09-30,-0.025522630033659056
2013-10-31,-0.003307691082990277
2013-11-30,-0.0004980504341857258
2013-12-31,-0.01676102166161222
2014-01-31,0.016762038438202388
2014-02-28,0.08462953161556731
2014-03-31,-0.01991201332824799
2014-04-30,0.021919316845519673
2014-05-31,-0.04766042448403259
2014-06-30,0.0008290022043088164
2014-07-31,-0.04412714869656816
2014-08-31,-0.01205053542990453
2014-09-30,-0.03862456468985508
2014-10-31,0.014724247037375154
2014-11-30,0.009398567606082465
2014-12-31,-0.03904039522385168
2015-01-31,-0.04815764970669787
2015-02-28,0.03094246606896502
2015-03-31,-0.038992547039037984
2015-04-30,0.05179763341479671
2015-05-31,-0.0034305858433288975
2015-06-30,0.01745351298548351
2015-07-31,-0.08807255756820243
2015-08-31,-0.014232228377687528
2015-09-30,-0.0708136369496023
2015-10-31,0.04758338068510668
2015-11-30,-0.07083617205439545
2015-12-31,-0.03562024297688342
2016-01-31,-0.07251936735244245
2016-02-29,-0.02296890674114846
2016-03-31,0.08822918812703966
2016-04-30,0.03865094008994921
2016-05-31,0.025917082965641523
2016-06-30,0.054316442859288515
2016-07-31,-0.050684233795928395
2016-08-31,0.009177959915563088
2016-09-30,0.06272012431628066
2016-10-31,0.0053489659961284955
2016-11-30,-0.004963197895018962
2016-12-31,0.029737128742748573
2017-01-31,-0.008214885329618444
2017-02-28,-0.003985744986193703
2017-03-31,-0.00865349533001726
2017-04-30,0.005097272041913
2017-05-31,-0.02972472311254966
2017-06-30,-0.025641007117730614
2017-07-31,0.03181230156378746
2017-08-31,-0.0016627630096843864
2017-09-30,-0.0025579883145482965
2017-10-31,0.05788098627842919
2017-11-30,-0.015624289635336056
2017-12-31,0.02499573895442096
2018-01-31,0.025399229162583522
2018-02-28,0.016831268871472373
2018-03-31,-0.003652726108684791
2018-04-30,0.06227335193679131
2018-05-31,0.00971325346918189
2018-06-30,-0.014258052921631438
2018-07-31,-0.0673349767597364
2018-08-31,-0.013193495733758888
2018-09-30,0.001966895440216281
2018-10-31,-0.005741178493087123
2018-11-30,-0.07940135160578998
2018-12-31,-0.043223160836275386
2019-01-31,0.032093138397992556
2019-02-28,-0.022695415640847802
2019-03-31,0.012372203783727116
2019-04-30,-0.011708534436686421
2019-05-31,-0.02609536386541053
2019-06-30,0.010746820648178682
2019-07-31,-0.012762461393012856
2019-08-31,-0.04259610511982868
2019-09-30,0.028800613706539937
2019-10-31,0.030118183950470657
2019-11-30,0.02418280596370621
2019-12-31,0.0172543180764619
2020-01-31,-0.003345335539418706
2020-02-29,-0.017401299892659667
2020-03-31,-0.11055307152420397
2020-04-30,-0.033087941539789056
2020-05-31,0.14219269646952692
2020-06-30,0.08098108618972617
2020-07-31,0.06738738690264948
2020-08-31,0.0668036076951294
2020-09-30,-0.060809486053811895
2020-10-31,-0.042054496878679515
2020-11-30,0.12881437270361104
2020-12-31,0.05014291436399617
2021-01-31,0.018381935047919244
2021-02-28,0.06474295526353088
2021-03-31,0.010306590127941329
2021-04-30,0.12158387436695602
2021-05-31,-0.0070250638175817755
2021-06-30,-0.03844430884320935
2021-07-31,-0.02489946195770697
2021-08-31,-0.04208212898792176
2021-09-30,0.04777507212874843
2021-10-31,0.0339348327424041
2021-11-30,-0.027111590889601134
2021-12-31,0.015303812570336925
2022-01-31,0.06634425676026129
2022-02-28,0.05262686892529017
2022-03-31,-0.003012036811207755
2022-04-30,0.05892236709866353
2022-05-31,-0.022102934439859532
2022-06-30,-0.0879762794641508
2022-07-31,0.02354266618178615
2022-08-31,-0.06198770939095858
2022-09-30,-0.07490265631098403
2022-10-31,0.04220436261437948
2022-11-30,-0.027685396618679563
2022-12-31,-0.04626428843943111
2023-01-31,-0.02994920056206272
2023-02-28,-0.05508781856044528
2023-03-31,0.0023160632181132893
2023-04-30,0.009974883061681683
2023-05-31,-0.017090867109817772
2023-06-30,0.04586881870441839
2023-07-31,0.03315640835287132
2023-08-31,0.014198909827671061
2023-09-30,0.01618262338175627
2023-10-31,0.02178809085813428
2023-11-30,-0.04161831246147831
2023-12-31,-0.06048090201492195
2024-01-31,0.023023578928864103
2024-02-29,0.022937501312562194
2024-03-31,0.04156465403409713
2024-04-30,0.003526592370144039
2024-05-31,0.03957270587989496
2024-06-30,-0.02139537321645431
2024-07-31,-0.03306762131336745
2024-08-31,0.036085074939214416
2024-09-30,0.04182975300712546
2024-10-31,0.017074009804728275
2024-11-30,0.029840549699893127
2024-12-31,0.03069314730901247
2025-01-31,0.041687592204443534
2025-02-28,-0.08664877831769931
2025-03-31,0.009235646826095581
2025-04-30,0.0002682855945865213
2025-05-31,0.0031709736834034477
2025-06-30,-0.010094600701929917
2025-07-31,-0.0034506965031986616
