,0
2001-09-30,-0.12540278589314355
2001-10-31,-0.002383210709520134
2001-11-30,0.0114282476019521
2001-12-31,0.016062620361027468
2002-01-31,-0.00509972160899751
2002-02-28,0.0457889048456435
2002-03-31,0.07372048777189538
2002-04-30,-0.019177551439308292
2002-05-31,-0.0011022060504487508
2002-06-30,0.030670914630659133
2002-07-31,-0.0037362973648254172
2002-08-31,-0.002049392524976011
2002-09-30,0.020514575562155222
2002-10-31,0.009995140524331708
2002-11-30,0.023827937993026144
2002-12-31,-0.05908734508542507
2003-01-31,0.09821332667023723
2003-02-28,0.014330145591467447
2003-03-31,-0.15604539900559108
2003-04-30,-0.019559587787397255
2003-05-31,0.04884064421180919
2003-06-30,-0.022493454267364415
2003-07-31,-0.018262153305135073
2003-08-31,0.05087380529059899
2003-09-30,-0.007969530560562052
2003-10-31,0.007894740636041566
2003-11-30,-0.005315363828541301
2003-12-31,-0.02678745119577629
2004-01-31,0.037671943635217135
2004-02-29,0.04565382842796336
2004-03-31,0.03566502155139369
2004-04-30,-0.014978728644884752
2004-05-31,-0.0308729391121593
2004-06-30,-0.050091774874283214
2004-07-31,-0.023859903918482587
2004-08-31,0.0026614031575494107
2004-09-30,-0.008900646302420087
2004-10-31,-0.0064027109462240425
2004-11-30,-0.025916232422835545
2004-12-31,-0.005917988421057798
2005-01-31,-0.006470030697072515
2005-02-28,0.08045696556622435
2005-03-31,0.055126284647499586
2005-04-30,-0.03224139328420098
2005-05-31,-0.006839946480114163
2005-06-30,-0.009538035598797205
2005-07-31,0.036264811815604155
2005-08-31,0.005691685650677398
2005-09-30,0.006601611132784468
2005-10-31,-0.07199784469049403
2005-11-30,0.00231801054940377
2005-12-31,0.07726332180392585
2006-01-31,0.0008031809944857703
2006-02-28,-0.027528713174606572
2006-03-31,0.06521683522682135
2006-04-30,0.06749236012018746
2006-05-31,-0.013428619924604417
2006-06-30,-0.011141940945117492
2006-07-31,0.02423655388815531
2006-08-31,-0.05992915251280631
2006-09-30,-0.056621224806245506
2006-10-31,0.05347221080739618
2006-11-30,0.0760054682031932
2006-12-31,-0.04191140722765132
2007-01-31,-0.037855546491511016
2007-02-28,0.058320067204394956
2007-03-31,0.012664731246795973
2007-04-30,-5.180361043004636e-05
2007-05-31,0.03851423707004367
2007-06-30,0.016084412756937335
2007-07-31,0.02172294210361558
2007-08-31,-0.03631151689650052
2007-09-30,0.0932787180633277
2007-10-31,0.017870650827593055
2007-11-30,0.004037238197205358
2007-12-31,0.057634017234328115
2008-01-31,0.009020694743332584
2008-02-29,0.10342851127218178
2008-03-31,-0.08555077954281316
2008-04-30,0.030949994882712478
2008-05-31,0.06338557506634292
2008-06-30,0.07627030690946335
2008-07-31,-0.1315379415765482
2008-08-31,-0.05830332799071433
2008-09-30,-0.13963265611875011
2008-10-31,-0.23337853427694644
2008-11-30,-0.039228641031591314
2008-12-31,-0.02302169481637618
2009-01-31,0.011137997421768986
2009-02-28,0.0028368398413328604
2009-03-31,0.043532512522683385
2009-04-30,0.015519776801220977
2009-05-31,0.1480690156930418
2009-06-30,0.0103615814599372
2009-07-31,0.021742848053948587
2009-08-31,-0.006847606817760939
2009-09-30,0.0240681619704326
2009-10-31,0.05674697778723146
2009-11-30,0.054442056473461585
2009-12-31,0.027204476156628465
2010-01-31,-0.03775273218078206
2010-02-28,0.0071483130598560774
2010-03-31,-0.05389940400643738
2010-04-30,0.04620509149737553
2010-05-31,-0.07721839449211552
2010-06-30,0.046541778138931594
2010-07-31,0.07651427315856225
2010-08-31,-0.027369747087356917
2010-09-30,0.0868837346251254
2010-10-31,0.07458854165807073
2010-11-30,-0.014230579668672222
2010-12-31,0.13400856139425033
2011-01-31,0.050950614588393485
2011-02-28,0.04143031025989919
2011-03-31,-0.00488346375076547
2011-04-30,0.01871840296923175
2011-05-31,-0.05685125432358967
2011-06-30,-0.008183655006477483
2011-07-31,0.04512516670587551
2011-08-31,0.009054244298611397
2011-09-30,-0.14547163905313856
2011-10-31,0.051617152292807056
2011-11-30,-0.03599346666106323
2011-12-31,-0.01994746468494982
2012-01-31,0.03797949500021624
2012-02-29,0.015032036294838453
2012-03-31,-0.05978683919054914
2012-04-30,-0.0014924143808083626
2012-05-31,-0.07970516938095681
2012-06-30,0.05376650993491888
2012-07-31,0.05476620666565604
2012-08-31,0.02404947637803671
2012-09-30,-0.03179416114579888
2012-10-31,-0.013942100429599395
2012-11-30,-0.0026423838212845225
2012-12-31,-0.03579367637344
2013-01-31,0.01688829715339727
2013-02-28,-0.02727976250666288
2013-03-31,0.0033630127925796736
2013-04-30,-0.004948442338666044
2013-05-31,-0.029383281499941488
2013-06-30,-0.0629173817135432
2013-07-31,0.010477129388444346
2013-08-31,0.01477730175210215
2013-09-30,-0.022650582784119456
2013-10-31,-0.019509640328161965
2013-11-30,0.009070319852892934
2013-12-31,-0.0012948362913822872
2014-01-31,0.03578046259158236
2014-02-28,0.07264291011717447
2014-03-31,0.0020549537936158237
2014-04-30,0.024862866031835584
2014-05-31,-0.055022095633552696
2014-06-30,0.013762849940658193
2014-07-31,-0.01921384090450345
2014-08-31,-0.003442134772289385
2014-09-30,-0.03467067968881421
2014-10-31,0.018631067178445815
2014-11-30,-0.017524337999558135
2014-12-31,-0.0622318645950406
2015-01-31,-0.06594988059006242
2015-02-28,0.04006666072715441
2015-03-31,-0.051846519760115374
2015-04-30,0.07013612643069611
2015-05-31,-0.009643591543865834
2015-06-30,0.03380561188759578
2015-07-31,-0.06962287165813652
2015-08-31,-0.03178811177150953
2015-09-30,-0.03146114836384765
2015-10-31,0.03577610336302439
2015-11-30,-0.048875159714115525
2015-12-31,-0.03713137219786706
2016-01-31,-0.05976875525940741
2016-02-29,-0.0012011487407523954
2016-03-31,0.09605001591992841
2016-04-30,0.06829075062759062
2016-05-31,0.010501324107068397
2016-06-30,0.04410301396751829
2016-07-31,-0.06317113330386949
2016-08-31,-0.03341555117206039
2016-09-30,0.022354653228705886
2016-10-31,-0.010715890408192886
2016-11-30,0.01169496449250211
2016-12-31,0.03075764711001729
2017-01-31,0.00019673307496589562
2017-02-28,-0.009107911451680786
2017-03-31,-0.011439922972708847
2017-04-30,-0.009765057479127322
2017-05-31,-0.008708181088558335
2017-06-30,0.005196669802953509
2017-07-31,0.01061852630615521
2017-08-31,-0.06708716593974827
2017-09-30,0.020148941232778765
2017-10-31,0.05368123923360022
2017-11-30,0.003728155762649194
2017-12-31,0.03737510922724618
2018-01-31,0.02039043182932695
2018-02-28,-0.005471554099367978
2018-03-31,-0.020981625445186128
2018-04-30,0.04326391979445717
2018-05-31,0.018071119209235136
2018-06-30,-0.028514702288219618
2018-07-31,-0.03732375787456322
2018-08-31,-0.025118188036951455
2018-09-30,0.004824815219809012
2018-10-31,-0.012635985542005469
2018-11-30,-0.0370314618823819
2018-12-31,-0.03777666013133727
2019-01-31,0.04658736065566707
2019-02-28,0.01993634489928779
2019-03-31,0.027004513227257932
2019-04-30,-0.0015789985602722618
2019-05-31,-0.017439887506062027
2019-06-30,0.006578958780754147
2019-07-31,-0.006900280018411161
2019-08-31,-0.05877552987043058
2019-09-30,0.019232243368232028
2019-10-31,0.04723179893098698
2019-11-30,-0.0018288600625030957
2019-12-31,0.04208249362158347
2020-01-31,-0.053806795360526426
2020-02-29,-0.02063486210533079
2020-03-31,-0.22914521392336965
2020-04-30,-0.018424467749693363
2020-05-31,0.14854015305107074
2020-06-30,0.08533882683342155
2020-07-31,0.04867772486724046
2020-08-31,0.04064976674438911
2020-09-30,-0.06677178816973155
2020-10-31,-0.027496728849718304
2020-11-30,0.08987424532837372
2020-12-31,0.04604138232864644
2021-01-31,-8.238625670617915e-05
2021-02-28,0.03399926742569587
2021-03-31,0.029299975019022567
2021-04-30,0.096948499123783
2021-05-31,0.024968465707139856
2021-06-30,-0.04174061140823871
2021-07-31,-0.018235034011169878
2021-08-31,-0.04871411075253162
2021-09-30,0.03823909228948765
2021-10-31,0.021906678580044303
2021-11-30,-0.014322391156847684
2021-12-31,0.051974681645812364
2022-01-31,0.06554959718941729
2022-02-28,0.06957855935761509
2022-03-31,0.01205284782040976
2022-04-30,0.05147612191166062
2022-05-31,-0.043097685354249404
2022-06-30,-0.05683724346445018
2022-07-31,-0.04406779606437871
2022-08-31,-0.06656331008374176
2022-09-30,-0.09219414282502297
2022-10-31,0.00029796818647006656
2022-11-30,0.025688927206468887
2022-12-31,-0.016078074692159636
2023-01-31,0.05441113325274125
2023-02-28,-0.008468807411546434
2023-03-31,-0.004731104557390833
2023-04-30,0.02630717390505984
2023-05-31,-0.04526852778115986
2023-06-30,0.046025486495927824
2023-07-31,0.04982191794895364
2023-08-31,-0.0032044728283709308
2023-09-30,-0.014575594584563875
2023-10-31,0.010872308846769818
2023-11-30,-0.021144380971161367
2023-12-31,-0.047780266780259616
2024-01-31,0.011519323090339456
2024-02-29,0.025172407340794928
2024-03-31,0.05727907035116634
2024-04-30,0.015873107249993842
2024-05-31,0.02638065521379097
2024-06-30,-0.023122763426939304
2024-07-31,-0.021235732577415078
2024-08-31,0.012554327532027927
2024-09-30,0.04900866458120956
2024-10-31,-0.01875440547340232
2024-11-30,0.025016851816434305
2024-12-31,0.01597569373846582
2025-01-31,0.017807906622458004
2025-02-28,-0.047580599123091906
2025-03-31,0.014988453746987124
2025-04-30,-0.018345567619070607
2025-05-31,0.0013169744354227294
2025-06-30,-0.016922503467576264
2025-07-31,0.04462502848471245
