,0
2002-09-30,0.05001266765132746
2002-10-31,0.02308342577080149
2002-11-30,0.000735251948950458
2002-12-31,-0.04268791219479051
2003-01-31,0.09021794958878501
2003-02-28,-0.001974961042474978
2003-03-31,-0.10145036263202052
2003-04-30,-0.02493761713400821
2003-05-31,-0.003399313817511593
2003-06-30,-0.0016156510008763108
2003-07-31,-0.022795397138840334
2003-08-31,0.05443212715716907
2003-09-30,0.009843199138831379
2003-10-31,0.0035074162140692248
2003-11-30,-0.010277321724142868
2003-12-31,0.032509011558576995
2004-01-31,0.0370526329109691
2004-02-29,0.03776328173641139
2004-03-31,0.042912075905025306
2004-04-30,-0.01540521594751754
2004-05-31,-0.02255605181208013
2004-06-30,-0.049007985000128505
2004-07-31,-0.033939174948727564
2004-08-31,0.03045344203951369
2004-09-30,0.011071756124267182
2004-10-31,-0.006637120983889859
2004-11-30,0.026998342947225976
2004-12-31,-0.0341283540694645
2005-01-31,0.00027119152957708417
2005-02-28,0.049847035657358325
2005-03-31,0.03567853245571538
2005-04-30,-0.03741930658432426
2005-05-31,-0.014581452730460333
2005-06-30,0.016487668151312623
2005-07-31,0.04132377153854978
2005-08-31,-0.00610762833739473
2005-09-30,0.05536449482164794
2005-10-31,-0.017628080615119442
2005-11-30,0.024310098189491765
2005-12-31,0.0607208445122739
2006-01-31,0.018505215707888732
2006-02-28,-0.03798822798182041
2006-03-31,0.04050866788655985
2006-04-30,0.049171391045989804
2006-05-31,-0.002804048072876593
2006-06-30,0.006806741366701948
2006-07-31,0.006306055225121385
2006-08-31,-0.05463087038592358
2006-09-30,-0.03388566152189875
2006-10-31,0.05701489870952862
2006-11-30,0.057505206088586766
2006-12-31,-0.024713979933405947
2007-01-31,-0.010001323457105155
2007-02-28,0.049430805356558444
2007-03-31,0.005570276060103036
2007-04-30,-0.007343792400595125
2007-05-31,0.026557739939976382
2007-06-30,0.0010822833873630497
2007-07-31,0.02094915063912244
2007-08-31,-0.03915509417108884
2007-09-30,0.08060251365495921
2007-10-31,0.011860547614751261
2007-11-30,-0.007608721575530158
2007-12-31,0.05335392055524761
2008-01-31,0.03391254869950974
2008-02-29,0.11276776680786654
2008-03-31,-0.08028457774737661
2008-04-30,0.029914554897702048
2008-05-31,0.025733433896483453
2008-06-30,0.08894840838781247
2008-07-31,-0.08023403850028589
2008-08-31,-0.06340182320452165
2008-09-30,-0.13749579668898174
2008-10-31,-0.19501056507762096
2008-11-30,-0.041528782068295494
2008-12-31,-0.002602105532881617
2009-01-31,-0.02010579128885294
2009-02-28,-0.026794110230373577
2009-03-31,0.06372060953346598
2009-04-30,0.019061683350552534
2009-05-31,0.1217816155947811
2009-06-30,-0.04743243664465082
2009-07-31,0.02924942191562639
2009-08-31,-0.01774569776810138
2009-09-30,0.017433522101982152
2009-10-31,0.05732864880142208
2009-11-30,0.077192746938903
2009-12-31,0.014511630002637409
2010-01-31,-0.023994822323220862
2010-02-28,0.011465262638887563
2010-03-31,-0.03268753326903905
2010-04-30,0.04229535159465934
2010-05-31,-0.06313673807258874
2010-06-30,0.023635602173817345
2010-07-31,0.08834056658231579
2010-08-31,-0.028702447254975196
2010-09-30,0.0901650122949098
2010-10-31,0.0679396735850656
2010-11-30,-0.0058599358121735985
2010-12-31,0.11075404531568983
2011-01-31,0.026788447134841943
2011-02-28,0.0221366444637556
2011-03-31,-0.014853159294868976
2011-04-30,0.01255035968423875
2011-05-31,-0.033806856418428705
2011-06-30,-0.013690011237195782
2011-07-31,0.01578206665522545
2011-08-31,0.009987704717239913
2011-09-30,-0.1636540593777075
2011-10-31,0.05847715873878671
2011-11-30,-0.05577282755536604
2011-12-31,-0.023614281456413824
2012-01-31,0.03581111115528015
2012-02-29,0.02364678703281549
2012-03-31,-0.047035006961038545
2012-04-30,-0.009604641972245056
2012-05-31,-0.08425524637847359
2012-06-30,0.061425145480845
2012-07-31,0.048035722010148475
2012-08-31,0.022374052448676778
2012-09-30,0.0027557377157407708
2012-10-31,-0.014510367472875414
2012-11-30,0.013022917584394117
2012-12-31,-0.028993139282952014
2013-01-31,0.01925659072954318
2013-02-28,-0.016042009219056706
2013-03-31,0.009315473947183829
2013-04-30,-0.008839277044407175
2013-05-31,-0.028413679067141137
2013-06-30,-0.03327142518036627
2013-07-31,1.2560807369684517e-05
2013-08-31,0.026359489783283497
2013-09-30,-0.017472712431824217
2013-10-31,-0.007676016401226336
2013-11-30,0.01607192018451435
2013-12-31,-0.004682414178337344
2014-01-31,0.023399922160077583
2014-02-28,0.07159484234025694
2014-03-31,0.004613102783258246
2014-04-30,0.024402668509045905
2014-05-31,-0.03354857334557351
2014-06-30,-0.00909243262001076
2014-07-31,-0.04430660485968288
2014-08-31,0.004539636557355005
2014-09-30,-0.06320619947901264
2014-10-31,0.007153439584777432
2014-11-30,-0.013724196019785754
2014-12-31,-0.05110477799542424
2015-01-31,-0.0440369483151725
2015-02-28,0.013315511973364598
2015-03-31,-0.044095099872754236
2015-04-30,0.012076088075193163
2015-05-31,-0.005677501108505243
2015-06-30,0.033514253867180405
2015-07-31,-0.06620157972536195
2015-08-31,-0.026731509125496183
2015-09-30,-0.032619465419330335
2015-10-31,0.04525264500799013
2015-11-30,-0.05200432223087567
2015-12-31,-0.013387371722695844
2016-01-31,-0.046483442252874645
2016-02-29,-0.011179189430024543
2016-03-31,0.0708280038364522
2016-04-30,0.03810732640238211
2016-05-31,0.014329239370981545
2016-06-30,0.04294730093916469
2016-07-31,-0.03875948845594391
2016-08-31,-0.006880273003836996
2016-09-30,0.022966745720995774
2016-10-31,0.002453078564626366
2016-11-30,0.0026884954422224626
2016-12-31,0.015574980827326081
2017-01-31,-0.007235154929863614
2017-02-28,0.0001498625964105896
2017-03-31,-0.010837474743479982
2017-04-30,-0.0026873689707304213
2017-05-31,-0.014469213849219882
2017-06-30,-0.01474293740385527
2017-07-31,0.027409722059341723
2017-08-31,-0.013287347946846488
2017-09-30,0.015445422809954297
2017-10-31,0.04199481264635558
2017-11-30,0.00030209698037982644
2017-12-31,0.0043357719787287365
2018-01-31,0.020294726042086278
2018-02-28,-0.0023540517358157684
2018-03-31,-0.004870008921370912
2018-04-30,0.04996118684106332
2018-05-31,0.007843569194902556
2018-06-30,-0.011603142763902579
2018-07-31,-0.045189558637055253
2018-08-31,-0.007309778675376702
2018-09-30,0.0007029488270767421
2018-10-31,-0.012622753181095018
2018-11-30,-0.04539426967238394
2018-12-31,-0.03228321887379217
2019-01-31,0.042352402458497994
2019-02-28,0.008703722725656497
2019-03-31,0.008491800184141453
2019-04-30,-0.005020271611717451
2019-05-31,-0.031793214842798116
2019-06-30,0.02819153784564566
2019-07-31,-0.013871792741809573
2019-08-31,-0.043519468015060306
2019-09-30,0.03228070225925318
2019-10-31,0.028503086702517624
2019-11-30,0.02020277026083171
2019-12-31,0.0357519447102898
2020-01-31,-0.04067109114674125
2020-02-29,-0.03315906770378109
2020-03-31,-0.21633751918760533
2020-04-30,-0.014891037731807734
2020-05-31,0.11571853649828347
2020-06-30,0.04659823597798396
2020-07-31,0.06620103846986596
2020-08-31,0.06495147229245739
2020-09-30,-0.03372087725047186
2020-10-31,-0.0237002024642251
2020-11-30,0.10215220071620595
2020-12-31,0.05145665369633571
2021-01-31,0.008829328829311046
2021-02-28,0.0760110086590986
2021-03-31,-0.016266510101290457
2021-04-30,0.09343454891637135
2021-05-31,0.01411756156303529
2021-06-30,-0.016253789222867757
2021-07-31,0.016113871940577132
2021-08-31,-0.01837356183971902
2021-09-30,0.027031603619367097
2021-10-31,0.02596360873293639
2021-11-30,-0.05230630742192105
2021-12-31,0.059064501866066536
2022-01-31,0.07153755633157138
2022-02-28,0.05909742956221088
2022-03-31,0.034448044542524175
2022-04-30,0.059663635284587055
2022-05-31,-0.03641530587314569
2022-06-30,-0.07913399907308062
2022-07-31,-0.01865879191358974
2022-08-31,-0.025607109312877328
2022-09-30,-0.057377245057656366
2022-10-31,0.021830802490564603
2022-11-30,-0.01758165784117074
2022-12-31,-0.03322040304520875
2023-01-31,-0.01758213495571002
2023-02-28,-0.05312729535319721
2023-03-31,-0.0056355147066733625
2023-04-30,-0.0017825636979760108
2023-05-31,-0.051068537258656094
2023-06-30,0.040469521333075714
2023-07-31,0.05574525365631152
2023-08-31,0.009995952467208729
2023-09-30,-0.009330983264133116
2023-10-31,-0.007952435262743772
2023-11-30,-0.028180561257680006
2023-12-31,-0.04235320234364355
2024-01-31,0.007579022449134023
2024-02-29,0.008990418583434197
2024-03-31,0.0493965897522117
2024-04-30,0.005563898856487197
2024-05-31,0.031138378919706278
2024-06-30,-0.014760629109932108
2024-07-31,-0.035400330461591016
2024-08-31,0.01863153479553161
2024-09-30,0.030847889009059534
2024-10-31,0.011220414076210489
2024-11-30,0.011141916539106945
2024-12-31,0.018608133951064157
2025-01-31,0.03035883200397779
2025-02-28,-0.06412943721508263
2025-03-31,0.01164019715559094
2025-04-30,-0.0219170677503829
2025-05-31,0.017768821202877524
2025-06-30,0.006248424741958869
2025-07-31,0.02334185222520982
